solver_type L2R_LR
nr_class 2
label 1 -1
nr_feature 1001
bias -1
w
0.0012606615674000132 
0.0092086014533820527 
0.0088971830199463652 
-0.0044745230479653611 
6.9603412590121821e-05 
0.0033928899545957103 
-0.0013488562721103564 
0.0042219104076472889 
-0.0013300095396169683 
-0.0047485447493270903 
-0.0044084266742854183 
-0.0014416091198102509 
-0.0051650739704319675 
-0.0023884334208732669 
-0.000648355981503101 
-0.0022149235350244359 
-0.0014148639984957962 
0.00032094092785307332 
0.0027530676611045839 
0.0025417696001304117 
-0.0019913657007467594 
0.00087837305450721233 
-0.0019702720062180008 
0.0015860048942826833 
-0.0043617176423440852 
-0.00064194758488001792 
0.00032491135798552528 
0.0030151671232830244 
0.0055432796966520485 
0.0042493474970365618 
0.00062484435173241148 
-0.0015825139484321492 
0.001605269554324065 
-0.00032261146933428519 
0.0024022178342305175 
-0.0064444698787381538 
-0.0053760527547408732 
0.0034812800656045377 
0.00086947369100908204 
0.00084142148030145699 
0.00063492110276294625 
-0.0011763033547544186 
-0.0026917762416467229 
-0.0021464522572843129 
0.0021539796592189961 
0.00068110981501134232 
-1.428788094605783e-05 
-0.0013683940628595797 
-0.0017198366317053846 
-0.0011528912634768732 
0.00072429474325438751 
0.0018402282982825677 
-0.00085608925370914851 
-0.00081690244282647589 
-0.00020638059965543201 
0.0013011379239181429 
0.0029209274274251368 
0.0010715432090402704 
0.001041224639477552 
-0.00040711715767451274 
0.00067305846591213193 
-0.00054574814702805247 
-0.0017076409147577826 
-0.0012149015332917415 
9.185540629969851e-05 
0.0045352350165857331 
0.020863460832381799 
0.018337464480318345 
-0.0028899180131371129 
0.003166060101573586 
0.0029467680746481351 
0.00069755995777832588 
0.0054706113121345866 
0.0011063661327526094 
-0.006681781314379698 
-0.011870080417094444 
0.021989670524046382 
-0.0075862355129077989 
0.0034962624038397971 
0.0014654611238948949 
0.0018580280137356017 
0.0024092944014350026 
-0.0017658840713710407 
-0.0079098082095491809 
-0.0070514084763068077 
0.013281435276337484 
-0.0023073016651051466 
-0.0010012934403181486 
-0.00016128974670145019 
-0.0016096579427419769 
0.0035176771009196176 
0.0043387466376060063 
-0.0013464516606374276 
0.0074092395265481278 
0.00019066040305766956 
0.0019898070296769693 
-8.4049737169389178e-05 
-0.00017569540509172011 
-0.0013272261814807572 
-0.0014373079144603309 
0.0068714539193858275 
0.00062980224358491737 
0.00031585068139090107 
0.0007023055033994807 
-0.00060095747029840357 
-0.0023937294017198261 
0.008145714079003925 
-0.00058221940411606963 
0.00018910919742557263 
0.00010469998573287615 
0.00012247131265833848 
0.0070207362882527564 
-0.00048582334898960607 
-0.0028988663963725194 
-0.0039956703751048255 
0.0033027611559228167 
0.0025754534522755626 
-0.0027921182525494034 
0.0048539949939094837 
0.0020524313849618054 
0.0088874041265608484 
0.032619187174444404 
-0.015255757289352146 
0.002400647768078093 
0.0039052601631565705 
-0.0019908490719660163 
0.0072532216480616293 
-0.0043633370708419236 
-0.01103449296324965 
-0.0051056140443124362 
0.0093300607979001516 
-0.001176973987113035 
-0.0021141837493999765 
0.0030177696324308763 
-0.0054078474942780234 
0.00093583553939224288 
0.0028428188453485672 
0.00027275363604193693 
0.0083192967822224816 
0.0018501021464712353 
0.0025212523494507169 
-0.0012524563305541026 
-0.0011538341752613467 
-0.0025570839189953021 
-0.001890666555375711 
0.0070419212383568729 
-0.00061869806804641745 
0.0013383739870332166 
0.0018461947362701568 
0.0015579239737591342 
-0.00028360304841130757 
0.01055724481107672 
-0.0013422665700836655 
-0.0018304369158493392 
-0.0028666505982868663 
-0.0019623965979157164 
0.0060039771213121944 
0.0022145494193745413 
0.0017965831602626775 
0.00010483423567399373 
0.0050332500231108808 
0.0051933939945685084 
-0.0019224354347031657 
0.007496070823240969 
0.00087436124702257485 
0.0049875510567034265 
0.005242914405488977 
0.0016127265948650911 
0.0061178844486741513 
-0.0014413094563798792 
0.0041071117829881926 
0.0021514905776603695 
-0.0028717847753894992 
-0.0088173385791749641 
-0.0031565950988187426 
-0.0018960358037397062 
-0.0004116127703588492 
0.0015369191756818856 
0.00042597846777841434 
0.0014560851622163055 
0.00157712788431592 
-0.0049195984187452397 
-0.0010266034324051085 
-0.0018274576302663211 
0.00062644554445049532 
0.001066409700723006 
2.2710573564257844e-05 
-0.0034099374940694122 
-0.0018040533740476426 
0.0034493809515873837 
0.0038286453121805088 
0.00036020277203766677 
-0.0037253474704889329 
0.0023024037157546129 
0.0024342267222087857 
-0.0015360998149612278 
-0.0049443941434126875 
-0.0063395975794478809 
-0.0012188128385454916 
-0.0080502426303990619 
-0.00087192275824764611 
0.0014454146631517019 
0.0011347602947675039 
0.0019762446150382983 
-0.00027458947598887657 
-9.9366170245637287e-05 
-0.0010157436659547258 
-0.0035780972534578534 
-0.0030142234589176364 
-0.0024544168731538639 
-0.00086569979703739718 
-0.002140640668765108 
0.00089917008524068227 
0.00097190044623427342 
0.00029994137872427798 
0.0012653173895989197 
0.00054463668833362982 
0.0022952055890066232 
0.0016092974405639551 
-0.0014940815168312271 
-0.00020082667957109751 
-0.00029523914477512308 
-0.00036281942774629109 
-0.00033741010595799288 
0.0015778647957058552 
0.0014782884715307031 
-0.00085793089418631085 
0.0017903964994976779 
-0.00033482384257124014 
0.00083897131948929059 
0.0065666556920345792 
-0.0010476697056334399 
0.0016137915658595836 
-0.0012228588918235979 
-0.0037788855647473822 
-0.003093337787466531 
0.0026756935149030636 
0.00069507959379868061 
-0.0018589504867021112 
-0.0022635226373984266 
-0.00031956353026279106 
0.0034555242649042103 
0.0011571212882172622 
0.0010900673552185702 
-0.00013477925226421537 
0.0018902696275608273 
0.0017973140769969942 
-0.00040820943939506231 
0.0023283277653542095 
0.00074482264649006885 
0.0022762108752777334 
-0.002778083993465642 
0.0039619817194301394 
0.0018210148704941602 
-0.00085418750413059628 
-0.003617741412115006 
0.00084287447689939657 
-0.0022696414731367531 
-0.0022052892654373765 
0.0006013545656780346 
-0.0039973900771882905 
-0.0041157898622931812 
0.00041684193823313559 
-0.0043248114825714052 
7.5114350199051344e-05 
-0.0011377760625138099 
0.0059396847580990911 
-0.00047979194498736416 
-0.0032262964061960395 
-0.0039047542970895911 
0.0052369066294885207 
0.0057824253458951822 
-0.00013037583318480588 
0.0074537502771746499 
0.0017972154734894037 
0.0038227640542371428 
0.00093609009535070291 
-0.00019929194360961759 
-0.0013286190028695291 
-0.00098661025738491022 
-0.00025188221404931255 
0.0021514003672587793 
-0.0026209563922457639 
-0.0011716893989888121 
-0.0015007865585989447 
-0.0067904239916434231 
-0.0021112733391740472 
-0.012426262759553186 
-0.0059267111852456256 
-0.0011474788180188132 
-0.0034691248947649705 
-0.00095333678332476697 
0.0004957172861595519 
0.00069004453673948945 
-0.00036132975784154529 
-0.0041600485844562997 
-0.0071972614844349886 
-0.0020754609166976318 
0.00077671390155196725 
-0.0034231147056816755 
0.00025147901425155944 
0.0019361380208460801 
-0.00029044827834581917 
0.0047184543705657955 
0.0085070136175418656 
-0.0033024805307333158 
0.0001591375006452293 
0.0021708919036400815 
-0.0033730042455415448 
0.00323638250679753 
-0.0051800725111780938 
-0.0025781074883171598 
0.0062244638335835116 
0.0021051504752716932 
0.00034048831163204375 
0.0022060774886878262 
-0.0020934196717238597 
-0.00076400467478501171 
-5.8064044112135424e-05 
0.0017004797619476464 
-0.0012302883159004952 
0.0020440288135207449 
7.0533613374852954e-05 
0.0011302442317744678 
0.002414514544291332 
0.0014432256027081122 
-0.0032789005610604324 
-0.0018133626681732474 
-0.002165784515066172 
-0.0017557092280168043 
0.001588441377425347 
0.0019891842115824562 
0.0010158256414489338 
0.0011729078105441079 
0.00021794732562195257 
0.0047882956204261693 
0.0040670302181104309 
-0.0025512472363670175 
0.0047302223638024986 
0.0010844415532588578 
0.0089324657005978129 
-0.015366095007317771 
0.0025524948818168741 
0.00116948461119643 
-0.0039957748832132392 
-0.00068402231119127604 
0.0041363302464581895 
-0.0022861744808722459 
-0.00081138574488624532 
0.00062686124593815476 
-0.0049370208438311814 
-0.00034486549880955049 
8.6910697352126897e-05 
-0.0030617909342506122 
0.00066122955268306017 
-0.0021366716583281521 
-0.00090383555919524878 
0.0036376799278016953 
-0.0032683444244998782 
0.00015824637274224082 
-4.8296277284774988e-05 
-0.00070369694518354045 
-0.0027000745938122366 
-0.0028662106927805253 
0.00066207300515586792 
-0.0045305022972588578 
0.00041399022225294287 
0.00023349284520339086 
0.0015705624175845038 
0.0026465987374097938 
0.00091008867992952488 
-0.0057493214931300879 
-0.0010651265619573164 
-0.00020004928557663555 
-0.00055446943791673947 
-0.00061067082341712052 
-0.00049346526341226651 
0.0016885028090047368 
0.0013267006674093005 
-0.00046184666040176536 
-0.0032427172707590558 
-0.0034532028551076698 
0.00019373009622202189 
-0.0058666945010672654 
-0.0037676877105848761 
-0.0077067992852278451 
-0.01850371491728061 
-0.0006742762697264685 
-0.0012766814074280962 
-0.0011021975229573383 
-0.0019084269874518954 
-0.0004008784244164767 
-0.00029334505175222753 
0.00025733126182815456 
-0.0027394520859323214 
-0.00070476237034167958 
-0.0029921298714755276 
-8.0718369524597074e-05 
0.0020051874271004551 
0.0018003190340770002 
-0.00098753245118923241 
0.00063352433745184186 
0.0014491315437985864 
0.00025389837634191392 
-0.0017050074697192174 
-0.0027831498293377464 
-0.0015190688022734783 
-0.001821760400574434 
0.0015826176644431697 
-0.0018062395578516206 
-0.00059290366612738891 
0.0023398487251201894 
-0.0025306306234709254 
-0.0026914122128312633 
-0.0042176479327991198 
-0.0019722861056241359 
-0.0061614845496334959 
-0.0037879234319186444 
0.0059225810287718726 
-0.0025707980205899191 
0.0032513506918408911 
-0.0061535934201412098 
-0.0036300031017960643 
-0.0016347796188868934 
-0.0014137564373708697 
0.00048630713333749356 
0.0021995466176174859 
0.00050870205609415816 
-0.0043230067062528677 
0.00015525407067781507 
-7.6411401624588673e-05 
0.00016652105118224221 
0.0013745856269625123 
0.001166818427906964 
-0.00072530280410880552 
-0.0025334407365258439 
0.00059455683415469355 
-0.0015072550894072519 
-0.0027024632671818066 
-0.0017476119686509954 
0.00055789640032701362 
-0.0015985664993601039 
-0.0006328352430812641 
0.0021806252770307961 
-0.0015136647567550955 
-0.0014083317207096953 
5.8295827862178898e-05 
-0.0016879765399547954 
-0.00073068463062318453 
-0.0013693820652502149 
-0.0019365184417258787 
-0.00082143480187854339 
0.00097273772872549541 
0.0028301135077847235 
0.0027381175368758315 
-0.0018044884628666917 
-0.0031852149903192038 
-0.0012835410634075566 
0.0013966947845132683 
0.00047768754636132979 
-0.0021461938337362964 
-0.0025659583962305281 
0.0012313507306347786 
0.0012135312326047483 
-0.00034944479705150989 
-0.00026014709167286837 
-0.00065817296368817044 
-0.00033640431644776491 
-0.0015721560103270839 
-0.00097607456083560176 
-0.00090447112107381407 
-0.003548846857106127 
-0.0002683867564980425 
0.002661232498561272 
0.0033002829221501738 
-0.00046236875190901037 
-0.0024396294193113365 
0.0013733894372512435 
0.0021524485858594559 
0.00085061554698629685 
-0.0014768258770427706 
-0.00048009280697726165 
0.0023716690790110836 
0.00029226031008885213 
0.0015447116447983417 
-0.0024646623836613074 
0.0017011734758819084 
0.0031556475560482514 
0.0019157630342501292 
-0.0032414877593916992 
-0.00030526463354021098 
-0.00067168798625311544 
-0.00019858614411637489 
-0.0012274049390602231 
-0.00045607860579092291 
-0.00043360424750455697 
0.00025539265255324111 
-0.0028646873677289283 
-0.0063650775680140536 
-0.0054829365285237863 
-0.0046684265433987581 
0.0048159123058130965 
-0.0086691738450738309 
-0.005506746642025195 
-0.0011124188160468625 
-0.013829249694345432 
-0.009166503185355928 
0.0044979276244080414 
0.010896061356490348 
-0.0083414605933321891 
-0.0032728908637345701 
-0.0017781291275348031 
-0.0049176704180072181 
0.0016520362589883986 
0.012161093100580445 
-4.5879565496793183e-05 
-0.0055564815103729933 
0.0040751361779258373 
-0.00057291121349747995 
0.0030792506439789296 
0.0010353841163533849 
0.00040556885126040584 
-0.00069747154832675029 
0.00033723269221531434 
-0.00019960124663541935 
-0.00070840295228460177 
-0.001648454100772586 
-0.0051088308368086432 
-0.0042183761691924138 
0.0053258099668564169 
-0.0039058304100504648 
-3.1696737512861928e-05 
-0.0019304854109197509 
-0.00084903410592775575 
0.00010454425512937224 
0.00040525385868070163 
0.0040751367846157717 
-0.0033579587655683989 
0.0017871568181751067 
0.0015800633652440161 
-0.0014558174681259175 
0.0036481814304682243 
0.00060165159009925107 
-0.0015836386400302721 
-0.0048153132144965324 
-0.001563698540950523 
-0.0010715264177387997 
0.00046322926743356645 
-0.00038578636588231972 
0.0018928042004010476 
0.0048074270435069788 
-0.0081764220089628366 
0.0032688181991954294 
-0.0080505556092206505 
-0.00033200030718672874 
-0.0011878568888738779 
0.0031942515723588647 
0.0051975900554447922 
0.0033013269067762412 
-0.00075286311178840686 
0.00048431325223377732 
0.00034367475670079591 
0.00085374767458600009 
0.0017028312347319937 
0.0011641409630863291 
-0.0026442388621073926 
0.00085299568470872597 
0.0026323648598789023 
0.0016296841345329678 
-0.00283356045269403 
-0.0025681853364661576 
0.0023845151632828827 
-0.0047156231810295468 
0.003643690467790406 
-0.0043333198027691866 
-0.0028176269962634621 
0.004038027163927236 
-0.0028060236044605879 
-0.00052631573810519867 
-0.00044255829022464923 
0.00090850323097807647 
-0.00071633563625572662 
0.00064901231537754604 
0.0028648289155373281 
0.0013688475976823817 
0.001042280483794544 
-0.0045718298645398732 
0.0027515408949789302 
-0.001671925985586519 
0.00023940295109212698 
-5.2781230199387244e-05 
0.0043382186918295802 
0.0058718347250070043 
0.0018192898077926142 
0.0035914820156175684 
0.0012400911229988264 
0.00039773369299326661 
0.00066518770025921728 
0.00056366501858357498 
-0.00043840301824670712 
0.0015696205373701957 
0.00020969870528743639 
-0.0014832289824163623 
-0.0015139393061027913 
0.00021615656152526466 
0.0011081542411166797 
0.0001623999251683806 
0.00030287057583029193 
-0.00010679718790586208 
-0.00069757083355452207 
-1.9213360374659859e-05 
0.00051407297343372151 
0.00083251197272172562 
0.00083858582066497368 
0.001542423164343454 
-0.0089588196555411559 
0.0018281315622664317 
-5.9964746828267696e-05 
0.0025949534795379906 
0.0042421152840478116 
0.0017009970841891304 
-0.0016674880555179806 
-0.0020047781949102924 
0.0024204096667780613 
0.0022709757187240327 
-0.0010878664054457441 
-0.0028921608237114597 
0.0009748385184278355 
0.00062578775204452381 
-0.0013587621999812335 
-0.0060648587387518473 
-0.0069513479214473725 
-2.5428337998652329e-05 
-0.0081985103657383953 
-0.00031103036159648182 
-0.00057418024835796644 
0.0040488573852051225 
0.0025121169898901685 
0.0017484738001304141 
0.0049423127963245236 
0.0065722642168640783 
-0.0011139748109420897 
0.0012461693045989252 
0.0014127066686435792 
-0.00078804021029751882 
0.0046784310020166172 
0.0047414585595362832 
-0.00068294101404174352 
0.0050145937538179173 
-0.00040106426377611583 
0.00029560324200400621 
0.002709215575263932 
0.0037737554676908385 
0.0043423047287247541 
0.00080481005559940202 
-0.00072946722975371847 
-0.0014830362949648543 
-0.0011114331797656542 
-0.0023566701669207194 
-0.0015227358702650377 
-0.0013739874453796346 
0.0024675230547433324 
0.0037546259951251252 
0.0015314507270235008 
0.0052483342663416357 
0.0015940759075202943 
-0.00035360930609992206 
0.0080337551083757043 
0.003744343600292493 
0.003970422141644489 
0.0094553289078072311 
0.0011085255646820576 
-0.002228527605639353 
0.0077311847563846228 
-0.0020875486977820468 
0.00437352118475754 
-0.016300135884993572 
-0.0079207361438446977 
0.019154541811131767 
-0.001678231538336124 
0.00095247092880187565 
-0.0015412412406569545 
0.00066770133576426387 
-0.0024175023605646027 
-0.0016475739106699412 
0.0028358872802525317 
0.00546561609058243 
0.0005580167031239686 
-0.0032102000427728355 
-0.002249278265263189 
-0.0024055892850854146 
-0.0014416453268232502 
0.0027632378892984647 
-0.0043026655345215804 
-1.729157449680864e-05 
0.00038809507629780822 
0.00081600441121708019 
0.0016863199618931993 
0.00078945534129916319 
0.001733512585297241 
0.0011862139361329424 
0.00051470204542185889 
0.00045331788087640758 
0.001025031427996363 
0.001001432727765126 
0.0021986615537787522 
0.0017069169140687946 
0.0010268137405199543 
0.00077386804675782129 
-0.00016930403862652066 
0.001654570144623889 
-0.0053433629336373063 
-0.0040494068171394934 
0.0039232883447854637 
-0.0042794480207070714 
-0.00047420507513799224 
0.00012807541565770241 
-0.0014589429174740754 
-0.00096405308476437931 
0.0014034149585801195 
-0.0012129352756882375 
0.0004634444854540946 
0.00066237439252613797 
0.0021100588485878898 
0.0027218732754053783 
-0.0030268141431756628 
-0.00011697126848437029 
7.9989676841518524e-05 
0.00053323900569699498 
-0.0024090384470822086 
-0.003202487613749902 
-0.00043734007198254626 
-0.0039214565252648137 
-0.0002014864791677908 
-1.9965643346607693e-05 
0.0031052798647755796 
-0.0030749378382891558 
0.0067809480922798315 
-0.00083525309599325381 
-0.0007645946237042579 
0.00028055612399775158 
0.00304699433305505 
0.0035302106558714776 
0.00053548217457226712 
0.00021629442117180415 
-0.0003193909195926405 
0.00060868894285406611 
-0.002481131648069651 
-0.0024520643982196846 
0.0011835663493057662 
-0.0044914728012261165 
-0.0040586050655028773 
0.0016866323292632247 
-0.0030703087490182046 
0.0026853152185460196 
0.0019311824972973151 
-0.0007435747457945574 
-1.539912448734853e-05 
-0.0071121864083448271 
-0.0066169355644455771 
0.0019859527758841942 
0.0015719752501804401 
-0.0016887635468535328 
-0.0020882358610888312 
0.00054505378636404646 
-0.0068629020631077583 
-0.0064471497015030545 
0.0019540885445540755 
-0.0064014219521587373 
0.0013788691719465705 
-0.00097031704356029865 
-8.1803242431139232e-07 
-0.0081715203969762503 
-0.0070688979762617773 
0.0038361420301809023 
0.00011234124465419518 
0.0013988090705677853 
0.0023092411814214656 
0.0034645008518909828 
0.0034170639689864923 
0.0015874838327242622 
-0.016092717255957747 
-0.012757451872249154 
0.01076773216395399 
-0.010475717371526951 
0.0080551417163222429 
-0.0077640366447855689 
-0.0087190027216915468 
0.0065109258232655294 
-0.005136152575272509 
0.0063343772787433517 
0.0043577735875752095 
-0.0023949732899219756 
-8.0065765648460851e-05 
-0.004624264388677142 
-0.0035775599862555322 
-0.0012516036236705813 
0.005912398834102728 
6.4249842999075372e-05 
0.00024383296251151754 
-0.0027015925020029484 
-0.00063484129276634538 
-2.2397690868831327e-05 
0.0010221736211947433 
7.957790117388578e-06 
-0.0012510351264174179 
0.00052798725452179887 
0.0012428895242415077 
0.0012740302601211011 
0.0049581339180007162 
0.0022543375137300688 
0.0020269200622349279 
-0.0011515426929859431 
0.0032895872845390538 
0.0025266469071379624 
-0.0013802559183998813 
0.0028991003030253981 
0.0012287401897494441 
0.005545410133524659 
0.00037280381176554438 
0.00042743412267102208 
-0.00093706949305768334 
-0.0020952442843022471 
-0.0017858832146569761 
0.002009327823578867 
0.001658599614869656 
-6.3707438298698922e-05 
-0.0009385753445636031 
-0.00071844033873937215 
0.00092738436065146492 
0.00054058362107276003 
-0.0010856941898125796 
-0.0010792795606799084 
0.00038208309912550015 
0.00013391641645604297 
-0.0005158168336593668 
-0.0011019871292500506 
-0.0010409890973811608 
-0.00072046036938732707 
0.0009016593711106785 
0.0028761944480425175 
-3.3134096260021518e-05 
-0.000817076343369807 
0.00063160520526913408 
0.0033425170718869913 
0.00095521373101535405 
-0.0014370820559896518 
-0.0016471657177702446 
1.6918174499356201e-05 
-0.0015404390394831026 
-0.00094755531920518495 
0.0012772569624149679 
0.00028206166037918646 
0.0022636553777384202 
0.0014531534602078297 
-0.0036420220716154193 
-0.0019172232753668732 
-0.0021198150869510993 
0.0004798304301279041 
-0.0032991500800434131 
-0.00241394286291549 
0.0026589509270654537 
-0.0019975928619970426 
0.001526910122579271 
-0.0029615271661377562 
-0.0028259613100344483 
-0.0022201934654183437 
0.0019380021844934083 
-0.0016159360651573636 
0.0019207539450972343 
-0.00046626044762136941 
-0.00079404345413830652 
0.0023520961088240346 
0.00044689415962974083 
0.0021587170570789675 
0.0027576433506334742 
-0.0020659790371753846 
-0.0036240357632408961 
-0.0045174898394223202 
-0.0046314187581445263 
-0.00068117196144101843 
0.00042794385095906278 
-0.0035372124507945936 
-0.002279131955454824 
-0.0016877252015231868 
0.0022355376955625699 
-0.0015680128826976701 
0.0034194142650251945 
0.0031486371330285831 
-0.0017892042497258964 
0.0027864635815414308 
0.001665766271099384 
-0.0024346722955002173 
0.00086063062560143354 
-0.001224663232525578 
0.0032958477261893528 
0.0037529685246702684 
-0.0030520265516395667 
0.00048870266513859908 
0.0019428189688123659 
0.002222835578560295 
-0.0019728523706751115 
0.0021889191170839446 
0.0026350518887094145 
-0.00027030629142892775 
0.0030345890910045284 
0.0026519405256596835 
-0.0011792401651128143 
0.0026968179360052891 
-0.00026376743554955604 
0.001908690706619609 
-0.00092125652692225373 
-0.003118548485846891 
-0.0021743780848583307 
0.0021461848032121246 
-0.00083176781941976313 
-0.0013880086046530828 
-0.00055135538709674648 
-0.0019725056095437213 
-0.00051284515940850468 
-6.5222573467911701e-05 
-0.0091094127583272577 
-0.009856972594712075 
0.00024119915374797412 
-0.010501282008472687 
0.00047241324199125378 
0.00029715269369030563 
-0.010817895465880214 
0.0010167925984282174 
0.00073848469412464337 
0.00057635802287709791 
0.0095757110032098271 
-0.00077546141373767039 
0.0020839229793123758 
0.0043520176828443337 
0.0045213420189778499 
0.0020292820047581434 
0.0015238840681823067 
0.0019888860437088855 
0.00091229483451850531 
-0.0016274167817953461 
-0.002962800308959678 
-0.0014816015313333063 
-0.004094200020113431 
-0.00016917121165527143 
0.004016034399882947 
-0.004697931389430832 
0.00088193035553336811 
0.0019744696719620502 
0.0015820036473773653 
-0.00079172391026414784 
-0.0013446261273533917 
-0.00054289452224259654 
-0.0022633928123594136 
-0.0010427122075522086 
-0.000971172323480032 
-0.00054263343229619628 
0.00058423400557870849 
0.0034500028448068813 
0.0012196242605778142 
0.0021833009592251793 
-0.0036071472088531776 
0.0015003458026810635 
0.0013708051542953798 
-0.0023043634975293725 
0.0036082084292038811 
0.0051583111142595251 
0.00042340855908422169 
-3.1179342060021388e-05 
-0.00050948360844936113 
0.001483333112589164 
8.2029842507200083e-05 
-0.0020741970986555267 
-0.00054204969632876653 
-0.00013669945393888605 
0.0042747320396899395 
0.0011638205718641226 
0.0011862214725013342 
-0.00041829976556764483 
0.0013355067484064366 
-0.00037182985179644811 
-9.2971400558083516e-05 
0.001719038224960373 
-0.00021063683170303589 
-7.8452969085335277e-06 
-0.00012491910403414277 
-0.0051758345234299121 
-0.0055285715311716313 
0.0019244168961012071 
-0.0039947532852980788 
0.005726137171183701 
0.0065540713572072966 
-0.00088194718617589925 
0.0084913082169294305 
0.003628469383663594 
-0.0071749393935655091 
0.004220703878695606 
0.011854821997776861 
0.0044514396855317388 
0.0014940286293880108 
0.02005455364818803 
